{"activationFunctionType":2,"outputSize":4,"bestHiddenWeights":[[[0.15488449971450466,-0.11044830217037258,0.0546922994569193,0.08115196890612401,-0.14282421268115125,-0.2269628850008353,0.9909364612485402],[-0.1995848539345455,-0.3064976811102794,-0.1392619522116357,0.05052384726657682,0.15349359546206262,-0.18381172357507752,0.10419234997415823],[-2.6361882067341274E-05,-2.877890462579767E-05,3.142687636897746E-05,5.6685864472090874E-06,-1.2696162902588686,-3.803115174196143,1.4765113111490606],[0.39077218276245285,0.21087431983964117,-0.08283445165495469,0.144513713263319,0.27510323904270584,0.49794163339418335,0.15432456585724172],[-0.17906391501018698,-0.16119643891264135,0.12909349393708994,0.046881929022599085,0.38840586706128316,-0.0693663479526595,0.1830863248236961],[0.5577423772122271,-0.09423208833490353,0.5877689823525881,0.20472105541863572,-1.1634106348707012,-0.7107775358236454,0.9430649404630644],[0.09281195535864802,0.37420522830288816,0.6527738684610819,0.1200733160504449,0.25424584427775093,-0.3684556738404625,-0.5394272682845149],[-0.15302539027192727,-0.17876936402625662,-0.059096808822030444,-0.07793788817536744,0.18296179361567555,-0.1129180024878776,0.018349910754827014],[-0.11463628833685188,0.20795583410149557,0.25731135868637856,0.058863746820258606,0.45379375949328,0.11738193081432538,-0.5228299142007102],[0.18358785105256012,0.48247094018537995,0.32094070601239844,-0.11593744072750256,-0.7570320851047365,-0.1863404571958322,0.4711846834653989],[0.26753648441137196,0.05148302408375846,0.060162555192868276,0.23202806698286904,-0.3971542567339209,-1.0357680550706019,1.012127333069488],[0.0291918378148142,-0.023017381324007068,-0.08492610198667681,-0.34216856729484635,-0.03227667377499095,0.12470710332674263,0.24192361177896846],[-0.12766732943117112,0.05157383283314503,-0.11911438166209858,-0.11542639527051968,0.5578440233245755,0.20124241446846883,0.2251433692385843],[0.16382243046321535,0.39469400997850707,0.08091014877475045,0.5848451648185554,-0.37786088119075656,-0.04486060794391735,1.3426467038201582],[0.08640389889452524,0.004782881195902447,0.5218257602447222,0.7685647134899132,0.398009514904115,-0.21987910268510313,-0.7660812562768274],[-0.1569402889144935,-0.2587897117772583,-0.27681968952840724,0.18762496164600043,0.2367046398487048,-0.09887784478717553,-0.2998520182249606],[0.24765417316248386,0.3484990606706249,0.2855452408688585,0.21177657693526614,0.6255073747128044,2.173772958707483,-0.792118431022568],[-0.31889508509290315,0.207054293654024,-0.3134847161715778,-0.31263836352595664,0.14257376449650935,-0.12456624900693611,-0.12185976630950034]]],"bestOutputWeights":[[0.7447769122215541,-0.24147634177412727,-3.6178972754074867,-0.3564962727802236,-0.07612216681586094,1.3015454632536805,-0.41949127139484,-0.142831007977508,-0.49880514076736593,1.001646883876611,1.1849478053721623,0.26743930521218784,-0.30930724922276526,1.2226205272166337,-1.006855199234368,-0.45880171942744463,-1.3931094433624052,0.13723328255123984],[-0.5064927199273359,0.217005693111763,2.605075594892096,0.4536518026861908,-0.09685813325115998,-0.6102375231418616,0.03655588106556175,0.12979600765182614,0.23838545963930963,0.06299910968001378,-0.8457902061715368,-0.048435467950006084,-0.0691540270895281,0.2383018814755142,-0.32978817287959833,0.19156844498861525,1.869433072943831,0.05679074213805943],[-0.48559997499830554,0.014729691306787307,-1.0544809222093916,-0.28522514050624825,-0.16686945240767956,0.5365154528868405,0.8878511465364318,0.0775947698776208,0.26549345495576276,0.337910911675915,0.05351365587061503,0.127881965920523,-0.4285764357515538,-0.4848138426798495,0.44335730456872613,-0.24008590875866836,-0.8803252653831933,0.2988462968936983],[0.09467385379045369,0.16592203170252195,0.5836630030404245,0.14178527085581372,0.11322015559165995,-0.372061167279254,0.24290977295505078,-0.027116462780149758,-0.08604476906046028,-0.7541061008075031,0.5409281748048249,-0.09771237950951125,0.2420608240726018,0.7279614098982076,0.5692534576996564,0.12070128394709893,-0.2337983946741808,-0.1312629755182749]],"bestHiddenBiases":[[0.18169974071021677,-0.17554722408797221,1.6448810286918394,-0.1683042246747111,-0.12797077104872184,0.9716366833787045,0.32635006747465856,-0.03772351145378002,0.1338970658805783,0.6136813582433814,0.30492169948069464,0.10880923672026258,-0.12056880507198238,-0.1321632789981144,0.3117485403627044,-0.35496210683771856,-0.6029837342705333,0.08417098602013418]],"bestOutputBiases":[0.6689917586907808,-0.5081131567907475,0.8348827407964786,0.12610777072914042],"_embeddingMatrix":[[0.5541966320530916,0.1755135623906,0.6526316549010475],[0.7746735303566393,0.3511350553858973,0.45652055688611815],[0.7340107844942441,0.5941699653542647,0.48401628578951517],[0.4871348909483808,0.5885471449619177,0.5837398740676741],[0.934026602246352,0.2277128733562287,0.5852292868804589],[0.3488080532396691,0.3090564188724567,0.13819075519449453]],"embeddingMatrixDict":{"Team 2 Goal From Corner":[0.5541966320530916,0.1755135623906,0.6526316549010475],"Team 1 Goal From Corner":[0.7746735303566393,0.3511350553858973,0.45652055688611815],"Team 2 Goal":[0.7340107844942441,0.5941699653542647,0.48401628578951517],"Team 1 Goal":[0.4871348909483808,0.5885471449619177,0.5837398740676741],"Team 2 Corner":[0.934026602246352,0.2277128733562287,0.5852292868804589],"Team 1 Corner":[0.3488080532396691,0.3090564188724567,0.13819075519449453]}}