{"activationFunctionType":2,"outputSize":4,"bestHiddenWeights":[[[-0.1033766402041315,-0.17465015972069858,0.023866165291249793,-0.03456004838122348,-0.13151112800820047,-0.18614491651363138,0.12508914349721179],[0.5965826644684638,0.17827718394169814,-0.0007708410400704225,0.4023777844867981,-0.3563486598808922,-0.27529787104963915,0.3036497935110298],[-0.19752506246341797,-0.19833191890555904,-0.2223447180394417,0.030493702829156276,-0.05808586555905668,-0.15657698874476025,0.058313435108294384],[0.12943918799379023,0.09931477134839273,0.26933327670122487,0.1629359518378629,1.3666536428318683,-0.24892339627563265,0.1507532600390284],[0.1976287878332367,0.3978467838515225,-0.04352112319862325,0.4757506409725817,-0.43939345652755396,0.049398611023803815,0.3867948932007624],[0.11482874308460622,0.5891302996250912,0.25190498810522843,0.06446715671862545,-1.0963160288024976,0.559039798592069,-0.22691771715179868],[0.401737496558337,0.7373362988590588,0.7336577482923836,0.16373519527972422,1.105280509163052,-0.9259701874579793,-0.004894493670146904],[3.3226351116309148E-06,-8.086562550800553E-07,-9.790870194403346E-07,4.7494223296103166E-07,-0.33857339157579147,0.8819100319304523,1.9001823814759384],[0.06436233439175172,0.3903913287569992,0.10746821939942552,0.1326523084877332,-0.36527324169196695,0.8314923112061783,-1.2534516167474357],[0.589613480548773,0.013799462641885342,0.005241582613600164,0.006876165678743688,0.07885306489809714,0.6058549239905994,0.01842742910793743],[0.2227219512091646,0.21700959624122226,0.18556393887963218,0.10253744409315395,0.6803689356535442,-0.5314564725294859,-0.19773616688574047],[-0.26356855028503956,-0.25258491705006947,-0.2203880025889367,-0.08877911273005205,0.04004082248135653,0.19728134890229437,-0.05846815541870191],[-0.010025273726976985,-0.011955423361096736,0.41461725704371816,0.08768852013655709,-0.24127650368644937,0.3470991004824762,0.2807134036976016],[1.98554219800592E-06,4.515451149778915E-06,1.3347308698491333E-06,2.995993546575201E-06,-2.1354415750102946,2.401728771778498,0.6036179706789248],[-0.008117121306722996,0.35937869441919756,0.7409619197948095,0.5630133235743143,0.003499170191961003,0.7774123169036333,1.118703967471722],[-0.21274258863970605,-0.27683511600853355,0.024422075692977926,-0.046821878472406084,0.14613887025665148,-0.08763850450039566,0.04303732971545925],[-0.02786635140468274,-0.22319715965661052,-0.044859768800550176,-0.027857814922636424,0.18815360951433877,-0.12280816257058767,0.11861318509027395],[0.04890738185729293,-0.23924833159183242,-0.227196602947351,-0.1638931041904667,0.10797778558998693,0.04349650792847812,-0.26398308487661676]]],"bestOutputWeights":[[-0.04027213333803579,0.5711344133127911,0.021091807771605728,0.35670583643742415,0.11404216373799943,-0.5848686704052871,0.9263029295455164,-0.3268239028167577,-1.1609511503381638,0.36596510004307614,0.606745258845112,-0.13620263724153409,-0.4341308098153115,2.153938998015034,-0.5842874981143222,0.011196484768142542,0.06260850454320119,-0.016672895395399755],[-0.03552337706839001,0.1474523335008262,0.07174546176744176,-1.018399050061122,0.21664402397864221,1.1326688512617769,0.19465612590208708,1.1294534016770856,0.9049777609273909,-0.40778203798360724,-0.11915899212957407,-0.08272592818412748,0.18188117466295775,-1.6048075915489564,-0.39508439230520886,0.011939423563990602,-0.0627735102733656,0.015283234851112052],[0.1078107011771188,-0.5409935727331956,-0.01461033365366197,0.6450435876041289,-0.3806521096151841,-0.6155190449499133,0.8942962526690212,-0.7132737855136124,-0.8469528384742503,0.07996910970773334,0.16670816874788355,-0.052556877038823925,-0.009608042294549762,1.0472144700096182,0.5015843947197194,-0.031865206477844674,0.060372300316788474,-0.03723163524537706],[0.1312344569799342,0.4633274524424627,0.0030238181165372544,-0.5802602359716238,0.7230454727619678,0.5177202513394483,-1.3176616310520604,-1.8203122291604363,0.001082469769195211,0.5096485061254367,-0.719388898588952,0.1769458165237093,0.2692191901546866,-1.6259737690488996,1.408827308322714,-0.04052970232916428,-0.039786047342270314,0.01010186441441228]],"bestHiddenBiases":[[-0.03497430839110885,0.4233391050889664,0.010105463837170325,-0.08426803196670711,0.38944038473278253,0.665353173444603,0.6031208924264669,-0.8738730976937727,0.6785255032208823,-0.1127553566739826,0.32357336651406554,0.008413831716811279,0.12147301614646405,-0.527643061191719,0.21414347717495166,-0.04131578429470047,-0.030309283852279406,-0.0365019087482326]],"bestOutputBiases":[0.008936362196445719,0.3744688021711598,-0.28140862614845,0.545636595107525],"_embeddingMatrix":[[0.48893425295599735,0.11914554414834433,0.37773491176229],[0.14454188395479595,0.82068114453388,0.6037406060320388],[0.4283842014011233,0.2712575199549534,0.0020695667004902996],[0.22512027801282497,0.24103827848158654,0.6842260374399136],[0.4139123231038341,0.9952355030800514,0.07172246069044752],[0.8317488335569649,0.778491360030302,0.7191134744870493]],"embeddingMatrixDict":{"Team 1 Goal From Corner":[0.48893425295599735,0.11914554414834433,0.37773491176229],"Team 1 Goal":[0.14454188395479595,0.82068114453388,0.6037406060320388],"Team 2 Goal":[0.4283842014011233,0.2712575199549534,0.0020695667004902996],"Team 2 Goal From Corner":[0.22512027801282497,0.24103827848158654,0.6842260374399136],"Team 2 Corner":[0.4139123231038341,0.9952355030800514,0.07172246069044752],"Team 1 Corner":[0.8317488335569649,0.778491360030302,0.7191134744870493]}}